{"levels":[{"inputs":[0.647575675134674,0.37457399155464544,0.07385641555945055,0,0],"outputs":[0,1,1,1,0,1],"biases":[-0.5755562750666889,-0.6651823248377405,-0.17154814734432464,-0.16090183962540414,0.26763767068343086,-0.30181281292186724],"weights":[[-0.6079849155306378,-0.25833960176616183,0.14385307521514698,0.29282678156620984,-0.5104641533055579,0.6027481753801828],[-0.7136537364585052,0.21809945753957322,0.05683004579855472,-0.8041724367563776,-0.23804323180920162,0.38485238184290493],[-0.5597072547674857,0.6151686969982687,0.5512249233911268,-0.17434337265370622,-0.5968878184145749,0.7503864479717759],[0.5472084156720715,-0.4575666346735232,0.31971536611315277,0.6751708647915491,-0.7526665265420801,0.4768764773073909],[-0.5739122118537803,-0.8065067753913479,0.14085454201101688,-0.4541979560188794,-0.39272221580474126,0.6682908629714632]]},{"inputs":[0,1,1,1,0,1],"outputs":[1,1,1,0],"biases":[-0.6406297146303135,-0.16562623919867142,-0.3364637680801812,0.27618331390325573],"weights":[[0.31710179632433877,0.13155446793649408,-0.8498166830235596,-0.3939894929632878],[-0.6439246805904235,-0.6409959610968728,0.5835054008044734,0.07889049905645311],[0.8846319604688269,-0.2533316114856718,-0.0318364129093958,0.15634083835671414],[-0.5103759649010933,0.7009454165892509,0.4896168302076349,0.14892371977356844],[-0.6612344306242385,0.7649564020240907,-0.4091107656291146,-0.3859278034969591],[0.1926142772769114,0.5887164516438316,-0.6239955177818964,-0.1709680671914453]]}]}