{"levels":[{"inputs":[0.36360389693210715,0.1427453773684083,0,0,0],"outputs":[1,1,1,0,0,1],"biases":[-0.8928861646748802,0.021836322726495938,-0.2783784917974428,0.4926780880358916,0.23146567741983196,-0.5700949115486653],"weights":[[-0.010260184867264877,0.3483172511362399,0.6723327316251781,0.33443957108611455,-0.0836674145726013,-0.8053891135701489],[0.654069139563009,-0.7007293263788941,-0.6867610523950143,-0.5720380493581642,-0.1455637333109207,0.3704555911093763],[0.25271197242500754,0.11129662788424266,0.08464682071890534,-0.11688191171128776,0.4647546832382473,-0.4728170975982755],[-0.27288334156735505,-0.11143739914997097,-0.21097796977117772,0.3101003018583026,-0.24884539694020857,-0.42982098789342593],[0.32709547759953916,0.6600946720749842,0.22775538443055937,-0.028745369677775856,0.07243154557551335,-0.2400218810732863]]},{"inputs":[1,1,1,0,0,1],"outputs":[1,0,0,0],"biases":[0.006606156157203252,0.3872941686909161,0.22950172218392328,-0.5719713541092558],"weights":[[-0.0805779598848817,-0.5766451091236736,-0.14719424695461963,-0.055032953689753694],[-0.048213661490289716,-0.4149647089735275,-0.4011689352562352,-0.7238585167613868],[0.35350120414811337,-0.35505960012779725,-0.7475630798666156,-0.1921549845718712],[-0.07603765741462065,-0.07445794536261455,0.013381122398691825,-0.025391164801275568],[0.3634260374290643,0.03171714357392308,0.4249330174567041,-0.12435391548001845],[-0.06883769793227579,-0.3735175912802114,0.6098059709099424,-0.7138292534110424]]}]}